~o
<STREAMINFO> 1 39
<VECSIZE> 39<NULLD><MFCC_D_A_0><DIAGC>
~h "speaker"
<BEGINHMM>
<NUMSTATES> 3
<STATE> 2
<MEAN> 39
 -5.082227e+00 3.982360e+00 -7.197692e-01 -9.173666e+00 2.086840e+00 -8.998975e+00 -8.199929e+00 1.284767e+00 5.328774e-01 3.061135e-01 -2.405125e+00 -1.716524e+00 6.856226e+01 6.154420e-03 1.597054e-02 1.556218e-03 9.780296e-04 -1.404638e-02 5.529371e-04 -7.100820e-03 -1.468368e-03 -7.061214e-03 -9.534542e-03 1.364145e-02 -1.074019e-03 -4.794820e-03 -1.610468e-03 2.255382e-03 -2.175920e-03 3.696255e-03 1.946870e-03 1.241739e-03 1.770806e-03 1.211549e-03 -1.569177e-03 3.639039e-03 4.749369e-03 6.422922e-03 -6.666421e-03
<VARIANCE> 39
 1.187130e+02 3.335030e+01 6.030516e+01 1.019199e+02 7.328540e+01 9.592012e+01 1.188275e+02 7.114606e+01 7.180788e+01 2.405058e+01 3.853845e+01 2.804757e+01 6.348325e+01 4.175169e+00 2.155604e+00 3.586910e+00 5.071086e+00 3.691232e+00 4.211229e+00 6.917051e+00 3.800555e+00 3.854608e+00 2.441058e+00 3.509262e+00 2.654113e+00 3.045117e+00 5.569248e-01 3.578146e-01 5.311549e-01 7.420143e-01 5.628281e-01 7.021817e-01 1.012593e+00 6.230074e-01 6.531291e-01 4.835336e-01 6.156139e-01 4.826647e-01 4.058962e-01
<GCONST> 1.346720e+02
<TRANSP> 3
 0.000000e+00 1.000000e+00 0.000000e+00
 0.000000e+00 9.962908e-01 3.709198e-03
 0.000000e+00 0.000000e+00 0.000000e+00
<ENDHMM>
